digraph Tree {
node [shape=box, style="filled, rounded", color="black", fontname=helvetica] ;
edge [fontname=helvetica] ;
0 [label="warp_nonpred_execution_efficiency <= -1.46\ngini = 0.18\nsamples = 3670\nvalue = [[5312, 513]\n[5281, 544]\n[5375, 450]\n[5150, 675]\n[5202, 623]\n[5250, 575]\n[5175, 650]\n[5200, 625]\n[5234, 591]\n[5246, 579]]", fillcolor="#e5813900"] ;
1 [label="gini = 0.0\nsamples = 415\nvalue = [[675, 0]\n[675, 0]\n[675, 0]\n[0, 675]\n[675, 0]\n[675, 0]\n[675, 0]\n[675, 0]\n[675, 0]\n[675, 0]]", fillcolor="#e58139ff"] ;
0 -> 1 [labeldistance=2.5, labelangle=45, headlabel="True"] ;
2 [label="stall_memory_dependency <= 0.83\ngini = 0.18\nsamples = 3255\nvalue = [[4637, 513]\n[4606, 544]\n[4700, 450]\n[5150, 0]\n[4527, 623]\n[4575, 575]\n[4500, 650]\n[4525, 625]\n[4559, 591]\n[4571, 579]]", fillcolor="#e5813903"] ;
0 -> 2 [labeldistance=2.5, labelangle=-45, headlabel="False"] ;
3 [label="gld_transactions_per_request <= 0.44\ngini = 0.17\nsamples = 2487\nvalue = [[3439, 513]\n[3408, 544]\n[3502, 450]\n[3952, 0]\n[3952, 0]\n[3952, 0]\n[3302, 650]\n[3327, 625]\n[3361, 591]\n[3373, 579]]", fillcolor="#e581390c"] ;
2 -> 3 ;
4 [label="global_hit_rate <= -0.62\ngini = 0.16\nsamples = 1757\nvalue = [[2269, 513]\n[2238, 544]\n[2332, 450]\n[2782, 0]\n[2782, 0]\n[2782, 0]\n[2132, 650]\n[2157, 625]\n[2782, 0]\n[2782, 0]]", fillcolor="#e581391d"] ;
3 -> 4 ;
5 [label="issued_ipc <= 0.67\ngini = 0.1\nsamples = 804\nvalue = [[1275, 0]\n[1275, 0]\n[1275, 0]\n[1275, 0]\n[1275, 0]\n[1275, 0]\n[625, 650]\n[650, 625]\n[1275, 0]\n[1275, 0]]", fillcolor="#e5813971"] ;
4 -> 5 ;
6 [label="l2_tex_write_hit_rate <= 0.81\ngini = 0.1\nsamples = 731\nvalue = [[1154, 0]\n[1154, 0]\n[1154, 0]\n[1154, 0]\n[1154, 0]\n[1154, 0]\n[623, 531]\n[531, 623]\n[1154, 0]\n[1154, 0]]", fillcolor="#e5813972"] ;
5 -> 6 ;
7 [label="gini = 0.07\nsamples = 93\nvalue = [[145, 0]\n[145, 0]\n[145, 0]\n[145, 0]\n[145, 0]\n[145, 0]\n[36, 109]\n[109, 36]\n[145, 0]\n[145, 0]]", fillcolor="#e5813995"] ;
6 -> 7 ;
8 [label="gini = 0.1\nsamples = 638\nvalue = [[1009, 0]\n[1009, 0]\n[1009, 0]\n[1009, 0]\n[1009, 0]\n[1009, 0]\n[587, 422]\n[422, 587]\n[1009, 0]\n[1009, 0]]", fillcolor="#e5813975"] ;
6 -> 8 ;
9 [label="stall_inst_fetch <= 1.08\ngini = 0.01\nsamples = 73\nvalue = [[121, 0]\n[121, 0]\n[121, 0]\n[121, 0]\n[121, 0]\n[121, 0]\n[2, 119]\n[119, 2]\n[121, 0]\n[121, 0]]", fillcolor="#e58139f6"] ;
5 -> 9 ;
10 [label="gini = 0.0\nsamples = 72\nvalue = [[119, 0]\n[119, 0]\n[119, 0]\n[119, 0]\n[119, 0]\n[119, 0]\n[0, 119]\n[119, 0]\n[119, 0]\n[119, 0]]", fillcolor="#e58139ff"] ;
9 -> 10 ;
11 [label="gini = 0.0\nsamples = 1\nvalue = [[2, 0]\n[2, 0]\n[2, 0]\n[2, 0]\n[2, 0]\n[2, 0]\n[2, 0]\n[0, 2]\n[2, 0]\n[2, 0]]", fillcolor="#e58139ff"] ;
9 -> 11 ;
12 [label="l2_tex_write_hit_rate <= 1.24\ngini = 0.13\nsamples = 953\nvalue = [[994, 513]\n[963, 544]\n[1057, 450]\n[1507, 0]\n[1507, 0]\n[1507, 0]\n[1507, 0]\n[1507, 0]\n[1507, 0]\n[1507, 0]]", fillcolor="#e5813942"] ;
4 -> 12 ;
13 [label="l2_read_throughput <= 0.45\ngini = 0.1\nsamples = 613\nvalue = [[450, 513]\n[963, 0]\n[513, 450]\n[963, 0]\n[963, 0]\n[963, 0]\n[963, 0]\n[963, 0]\n[963, 0]\n[963, 0]]", fillcolor="#e5813972"] ;
12 -> 13 ;
14 [label="gini = 0.0\nsamples = 313\nvalue = [[2, 481]\n[483, 0]\n[481, 2]\n[483, 0]\n[483, 0]\n[483, 0]\n[483, 0]\n[483, 0]\n[483, 0]\n[483, 0]]", fillcolor="#e58139fd"] ;
13 -> 14 ;
15 [label="gini = 0.02\nsamples = 300\nvalue = [[448, 32]\n[480, 0]\n[32, 448]\n[480, 0]\n[480, 0]\n[480, 0]\n[480, 0]\n[480, 0]\n[480, 0]\n[480, 0]]", fillcolor="#e58139dc"] ;
13 -> 15 ;
16 [label="gini = 0.0\nsamples = 340\nvalue = [[544, 0]\n[0, 544]\n[544, 0]\n[544, 0]\n[544, 0]\n[544, 0]\n[544, 0]\n[544, 0]\n[544, 0]\n[544, 0]]", fillcolor="#e58139ff"] ;
12 -> 16 ;
17 [label="gld_transactions_per_request <= 1.7\ngini = 0.1\nsamples = 730\nvalue = [[1170, 0]\n[1170, 0]\n[1170, 0]\n[1170, 0]\n[1170, 0]\n[1170, 0]\n[1170, 0]\n[1170, 0]\n[579, 591]\n[591, 579]]", fillcolor="#e5813971"] ;
3 -> 17 ;
18 [label="gini = 0.0\nsamples = 373\nvalue = [[591, 0]\n[591, 0]\n[591, 0]\n[591, 0]\n[591, 0]\n[591, 0]\n[591, 0]\n[591, 0]\n[0, 591]\n[591, 0]]", fillcolor="#e58139ff"] ;
17 -> 18 ;
19 [label="gini = 0.0\nsamples = 357\nvalue = [[579, 0]\n[579, 0]\n[579, 0]\n[579, 0]\n[579, 0]\n[579, 0]\n[579, 0]\n[579, 0]\n[579, 0]\n[0, 579]]", fillcolor="#e58139ff"] ;
17 -> 19 ;
20 [label="stall_inst_fetch <= -0.92\ngini = 0.1\nsamples = 768\nvalue = [[1198, 0]\n[1198, 0]\n[1198, 0]\n[1198, 0]\n[575, 623]\n[623, 575]\n[1198, 0]\n[1198, 0]\n[1198, 0]\n[1198, 0]]", fillcolor="#e5813971"] ;
2 -> 20 ;
21 [label="flop_sp_efficiency <= -0.81\ngini = 0.1\nsamples = 537\nvalue = [[836, 0]\n[836, 0]\n[836, 0]\n[836, 0]\n[457, 379]\n[379, 457]\n[836, 0]\n[836, 0]\n[836, 0]\n[836, 0]]", fillcolor="#e5813972"] ;
20 -> 21 ;
22 [label="warp_nonpred_execution_efficiency <= 0.39\ngini = 0.07\nsamples = 310\nvalue = [[488, 0]\n[488, 0]\n[488, 0]\n[488, 0]\n[109, 379]\n[379, 109]\n[488, 0]\n[488, 0]\n[488, 0]\n[488, 0]]", fillcolor="#e581399d"] ;
21 -> 22 ;
23 [label="gini = 0.0\nsamples = 243\nvalue = [[379, 0]\n[379, 0]\n[379, 0]\n[379, 0]\n[0, 379]\n[379, 0]\n[379, 0]\n[379, 0]\n[379, 0]\n[379, 0]]", fillcolor="#e58139ff"] ;
22 -> 23 ;
24 [label="gini = 0.0\nsamples = 67\nvalue = [[109, 0]\n[109, 0]\n[109, 0]\n[109, 0]\n[109, 0]\n[0, 109]\n[109, 0]\n[109, 0]\n[109, 0]\n[109, 0]]", fillcolor="#e58139ff"] ;
22 -> 24 ;
25 [label="gini = 0.0\nsamples = 227\nvalue = [[348, 0]\n[348, 0]\n[348, 0]\n[348, 0]\n[348, 0]\n[0, 348]\n[348, 0]\n[348, 0]\n[348, 0]\n[348, 0]]", fillcolor="#e58139ff"] ;
21 -> 25 ;
26 [label="inst_per_warp <= -0.17\ngini = 0.09\nsamples = 231\nvalue = [[362, 0]\n[362, 0]\n[362, 0]\n[362, 0]\n[118, 244]\n[244, 118]\n[362, 0]\n[362, 0]\n[362, 0]\n[362, 0]]", fillcolor="#e5813982"] ;
20 -> 26 ;
27 [label="issued_ipc <= -0.49\ngini = 0.09\nsamples = 212\nvalue = [[322, 0]\n[322, 0]\n[322, 0]\n[322, 0]\n[118, 204]\n[204, 118]\n[322, 0]\n[322, 0]\n[322, 0]\n[322, 0]]", fillcolor="#e581397b"] ;
26 -> 27 ;
28 [label="stall_not_selected <= -0.49\ngini = 0.08\nsamples = 174\nvalue = [[263, 0]\n[263, 0]\n[263, 0]\n[263, 0]\n[67, 196]\n[196, 67]\n[263, 0]\n[263, 0]\n[263, 0]\n[263, 0]]", fillcolor="#e5813993"] ;
27 -> 28 ;
29 [label="gini = 0.08\nsamples = 136\nvalue = [[202, 0]\n[202, 0]\n[202, 0]\n[202, 0]\n[61, 141]\n[141, 61]\n[202, 0]\n[202, 0]\n[202, 0]\n[202, 0]]", fillcolor="#e5813987"] ;
28 -> 29 ;
30 [label="gini = 0.04\nsamples = 38\nvalue = [[61, 0]\n[61, 0]\n[61, 0]\n[61, 0]\n[6, 55]\n[55, 6]\n[61, 0]\n[61, 0]\n[61, 0]\n[61, 0]]", fillcolor="#e58139cd"] ;
28 -> 30 ;
31 [label="ipc <= -0.87\ngini = 0.05\nsamples = 38\nvalue = [[59, 0]\n[59, 0]\n[59, 0]\n[59, 0]\n[51, 8]\n[8, 51]\n[59, 0]\n[59, 0]\n[59, 0]\n[59, 0]]", fillcolor="#e58139bc"] ;
27 -> 31 ;
32 [label="gini = 0.0\nsamples = 3\nvalue = [[3, 0]\n[3, 0]\n[3, 0]\n[3, 0]\n[0, 3]\n[3, 0]\n[3, 0]\n[3, 0]\n[3, 0]\n[3, 0]]", fillcolor="#e58139ff"] ;
31 -> 32 ;
33 [label="gini = 0.03\nsamples = 35\nvalue = [[56, 0]\n[56, 0]\n[56, 0]\n[56, 0]\n[51, 5]\n[5, 51]\n[56, 0]\n[56, 0]\n[56, 0]\n[56, 0]]", fillcolor="#e58139d1"] ;
31 -> 33 ;
34 [label="gini = 0.0\nsamples = 19\nvalue = [[40, 0]\n[40, 0]\n[40, 0]\n[40, 0]\n[0, 40]\n[40, 0]\n[40, 0]\n[40, 0]\n[40, 0]\n[40, 0]]", fillcolor="#e58139ff"] ;
26 -> 34 ;
}